tree
version=v3
num_class=3
num_tree_per_iteration=3
label_index=0
max_feature_idx=3
objective=multiclass num_class:3
feature_names=sepal_length sepal_width petal_length petal_width
feature_infos=[4.2999999999999998:7.7000000000000002] [2:4.4000000000000004] [1:6.7000000000000002] [0.10000000000000001:2.5]
tree_sizes=549 526 543 652 542 646 651 541 647 650 528 655 652 544 651 649 529 650 654 545 652 654 528 654 555 543 652 656 530 656 657 544 652 651 527 658 651 546 551 639 525 549 653 544 549 652 530 548

Tree=0
num_leaves=4
num_cat=0
split_feature=2 2 0
split_gain=77.0732 0.0696864 3.55271e-15
threshold=3.1500000000000004 1.4500000000000002 6.1500000000000012
decision_type=2 2 2
left_child=1 -1 -2
right_child=2 -3 -4
leaf_value=-0.89861228866810972 -1.1986122886681096 -0.91289800295382406 -1.1986122886681099
leaf_weight=6.6666668653488141 12.333333700895311 7.0000002086162567 14.000000417232512
leaf_count=20 37 21 42
internal_value=-1.09861 -0.905929 -1.19861
internal_weight=0 13.6667 26.3333
internal_count=120 41 79
is_linear=0
shrinkage=1


Tree=1
num_leaves=4
num_cat=0
split_feature=2 3 3
split_gain=19.2405 39.74 0.47422
threshold=1.8 1.6500000000000001 1.3500000000000003
decision_type=2 2 2
left_child=-1 2 -2
right_child=1 -3 -4
leaf_value=-1.1751854953964171 -0.90250874610487153 -1.1591645348034945 -0.93807527862116002
leaf_weight=12.821042180061339 8.4348961710929888 12.483646333217619 6.7479169368743888
leaf_count=38 25 37 20
internal_value=-1.07392 -1.02699 -0.918316
internal_weight=0 27.6665 15.1828
internal_count=120 82 45
is_linear=0
shrinkage=1


Tree=2
num_leaves=4
num_cat=0
split_feature=2 2 1
split_gain=63.5727 2.03185 0.105245
threshold=4.7500000000000009 5.3500000000000005 2.8500000000000001
decision_type=2 2 2
left_child=2 -2 -1
right_child=1 -3 -4
leaf_value=-1.2082244016838413 -0.99477529393302389 -0.91880188269968199 -1.2226955276330493
leaf_weight=6.910312324762347 6.5812498331069929 7.5684373080730438 18.427499532699585
leaf_count=21 20 23 56
internal_value=-1.12393 -0.954138 -1.21875
internal_weight=0 14.1497 25.3378
internal_count=120 43 77
is_linear=0
shrinkage=1


Tree=3
num_leaves=5
num_cat=0
split_feature=2 2 2 3
split_gain=60.575 0.0343141 0.000406812 8.55145e-05
threshold=3.1500000000000004 1.4500000000000002 5.3500000000000005 1.3500000000000003
decision_type=2 2 2 2
left_child=1 -1 3 -2
right_child=2 -3 -4 -5
leaf_value=0.16547296543816431 -0.095264996547141739 0.15581993812574146 -0.094646589669455383 -0.095715268695883773
leaf_weight=7.2170604765415174 6.9325828552246156 7.5192148387432098 7.1810509562492362 10.770962774753569
leaf_count=20 22 21 23 34
internal_value=0 0.160547 -0.0952814 -0.0955389
internal_weight=0 14.7363 24.8846 17.7035
internal_count=120 41 79 56
is_linear=0
shrinkage=0.1


Tree=4
num_leaves=4
num_cat=0
split_feature=3 3 3
split_gain=16.3598 31.3994 0.363178
threshold=0.45000000000000007 1.6500000000000001 1.3500000000000003
decision_type=2 2 2
left_child=-1 2 -2
right_child=1 -3 -4
leaf_value=-0.096649963507627265 0.14711366056994665 -0.080458272152291663 0.11681114834195463
leaf_weight=12.172832369804381 8.9306710660457664 11.951251983642576 7.0991638004779807
leaf_count=38 25 37 20
internal_value=0 0.0422252 0.133694
internal_weight=0 27.9811 16.0298
internal_count=120 82 45
is_linear=0
shrinkage=0.1


Tree=5
num_leaves=5
num_cat=0
split_feature=2 2 1 0
split_gain=50.3584 1.41436 0.100992 0.000166423
threshold=4.7500000000000009 5.3500000000000005 2.8500000000000001 5.2500000000000009
decision_type=2 2 2 2
left_child=2 -2 -1 -4
right_child=1 -3 3 -5
leaf_value=-0.079723461599257722 0.10935123539403731 0.17058339440188841 -0.093989869041155402 -0.094611883600109983
leaf_weight=6.5796179175376919 6.9771580398082724 8.2123437225818616 9.5837727487087268 7.8040844798088065
leaf_count=21 20 23 31 25
internal_value=0 0.142457 -0.090276 -0.094269
internal_weight=0 15.1895 23.9675 17.3879
internal_count=120 43 77 56
is_linear=0
shrinkage=0.1


Tree=6
num_leaves=5
num_cat=0
split_feature=2 2 2 3
split_gain=48.9407 0.0217941 0.00104902 0.000337342
threshold=3.1500000000000004 1.4500000000000002 5.3500000000000005 1.3500000000000003
decision_type=2 2 2 2
left_child=1 -1 3 -2
right_child=2 -3 -4 -5
leaf_value=0.14281236405355366 -0.091254913213291378 0.13525084925585884 -0.090333370300720042 -0.092177328417093335
leaf_weight=7.4669429063796979 6.4957962632179322 7.786616712808609 6.6619926393032065 10.175432235002516
leaf_count=20 22 21 23 34
internal_value=0 0.138952 -0.0913941 -0.0918179
internal_weight=0 15.2536 23.3332 16.6712
internal_count=120 41 79 56
is_linear=0
shrinkage=0.1


Tree=7
num_leaves=4
num_cat=0
split_feature=3 2 3
split_gain=13.7664 25.2842 0.283336
threshold=0.45000000000000007 4.9500000000000011 1.3500000000000003
decision_type=2 2 2
left_child=-1 2 -2
right_child=1 -3 -4
leaf_value=-0.092279539583164261 0.12805660168245278 -0.077769539556524866 0.10182122536163613
leaf_weight=11.403132259845732 9.2171272933483177 11.238456130027769 7.4387193918228141
leaf_count=38 25 36 21
internal_value=0 0.0381341 0.11634
internal_weight=0 27.8943 16.6558
internal_count=120 82 46
is_linear=0
shrinkage=0.1


Tree=8
num_leaves=5
num_cat=0
split_feature=2 2 1 0
split_gain=40.7815 1.1181 0.099723 0.000393169
threshold=4.7500000000000009 5.3500000000000005 2.8500000000000001 5.2500000000000009
decision_type=2 2 2 2
left_child=2 -2 -1 -4
right_child=1 -3 3 -5
leaf_value=-0.075598860888009933 0.094445265751220323 0.14789088248284873 -0.090034048022101784 -0.091021662055755959
leaf_weight=6.2257131338119533 7.2310867905616751 8.5339154899120313 8.9311851263046282 7.3467282056808463
leaf_count=21 20 23 31 25
internal_value=0 0.123376 -0.0863629 -0.0904798
internal_weight=0 15.765 22.5036 16.2779
internal_count=120 43 77 56
is_linear=0
shrinkage=0.1


Tree=9
num_leaves=5
num_cat=0
split_feature=2 2 2 3
split_gain=40.2923 0.0162285 0.00122963 0.000466174
threshold=3.1500000000000004 1.4500000000000002 5.3500000000000005 1.3500000000000003
decision_type=2 2 2 2
left_child=1 -1 3 -2
right_child=2 -3 -4 -5
leaf_value=0.12694368106857454 -0.087877913210386932 0.12043389976633267 -0.08689599376018009 -0.089000314433027902
leaf_weight=7.4809529483318311 6.042536914348605 7.8458285927772522 6.1551977992057791 9.5469256043434125
leaf_count=20 22 21 23 34
internal_value=0 0.123611 -0.0880928 -0.0885653
internal_weight=0 15.3268 21.7447 15.5895
internal_count=120 41 79 56
is_linear=0
shrinkage=0.1


Tree=10
num_leaves=4
num_cat=0
split_feature=2 3 3
split_gain=11.8283 21.2483 0.167748
threshold=1.8 1.6500000000000001 1.3500000000000003
decision_type=2 2 2
left_child=-1 2 -2
right_child=1 -3 -4
leaf_value=-0.089029322194668109 0.11552752197127812 -0.073315884469774495 0.095254749854598364
leaf_weight=10.638410180807112 9.2336147129535728 10.886600732803343 7.3152196407318106
leaf_count=38 25 37 20
internal_value=0 0.0351875 0.106566
internal_weight=0 27.4354 16.5488
internal_count=120 82 45
is_linear=0
shrinkage=0.1


Tree=11
num_leaves=5
num_cat=0
split_feature=3 3 2 2
split_gain=33.4443 1.25297 0.000783459 2.03604e-05
threshold=1.6500000000000001 1.3500000000000003 3.1500000000000004 1.4500000000000002
decision_type=2 2 2 2
left_child=1 2 3 -1
right_child=-2 -3 -4 -5
leaf_value=-0.086873551656715967 0.12350953869525108 -0.03472206899462784 -0.088150614001663796 -0.086600401935124652
leaf_weight=5.3546457588672691 13.773322910070418 6.1990547180175772 6.0811862349510184 5.5649471879005432
leaf_count=20 37 20 22 21
internal_value=0 -0.0732078 -0.0872409 -0.0867343
internal_weight=0 23.1998 17.0008 10.9196
internal_count=120 83 63 41
is_linear=0
shrinkage=0.1


Tree=12
num_leaves=5
num_cat=0
split_feature=2 2 2 3
split_gain=33.5908 0.0141273 0.00103204 0.000390254
threshold=3.1500000000000004 1.4500000000000002 5.3500000000000005 1.3500000000000003
decision_type=2 2 2 2
left_child=1 -1 3 -2
right_child=2 -3 -4 -5
leaf_value=0.11528675469813165 -0.085062558447183037 0.10915997586627989 -0.084125341902322751 -0.086128894520458812
leaf_weight=7.316168397665022 5.5931763052940395 7.7504719197750092 5.6702967733144751 8.8827322870492917
leaf_count=20 22 21 23 34
internal_value=0 0.112135 -0.0852689 -0.0857169
internal_weight=0 15.0666 20.1462 14.4759
internal_count=120 41 79 56
is_linear=0
shrinkage=0.1


Tree=13
num_leaves=4
num_cat=0
split_feature=3 2 0
split_gain=10.0665 17.5406 0.156326
threshold=0.45000000000000007 4.9500000000000011 5.7500000000000009
decision_type=2 2 2
left_child=-1 2 -2
right_child=1 -3 -4
leaf_value=-0.085925627340979249 0.085644832688495307 -0.071278235194040987 0.10507826734028794
leaf_weight=9.8213033378124219 7.940478712320334 10.120122551918028 8.6470548212528211
leaf_count=38 22 36 24
internal_value=0 0.0324751 0.0957755
internal_weight=0 26.7077 16.5875
internal_count=120 82 46
is_linear=0
shrinkage=0.1


Tree=14
num_leaves=5
num_cat=0
split_feature=2 2 1 0
split_gain=28.1127 0.883839 0.105904 0.00114272
threshold=4.7500000000000009 5.3500000000000005 2.8500000000000001 5.2500000000000009
decision_type=2 2 2 2
left_child=2 -2 -1 -4
right_child=1 -3 3 -5
leaf_value=-0.068383563483775819 0.073713410786984665 0.12102380471105689 -0.083943827569205445 -0.085752805282615377
leaf_weight=5.4765098989009884 7.3881059587001792 8.4823609590530378 7.5902630835771543 6.4673886448144913
leaf_count=21 20 23 31 25
internal_value=0 0.0989996 -0.0801803 -0.0847761
internal_weight=0 15.8705 19.5342 14.0577
internal_count=120 43 77 56
is_linear=0
shrinkage=0.1


Tree=15
num_leaves=5
num_cat=0
split_feature=2 2 2 3
split_gain=28.2909 0.0140353 0.0010953 0.000336997
threshold=3.1500000000000004 1.4500000000000002 5.3500000000000005 1.3500000000000003
decision_type=2 2 2 2
left_child=1 -1 3 -2
right_child=2 -3 -4 -5
leaf_value=0.10647483763176689 -0.082750990645830177 0.10026111841234008 -0.08167107326803115 -0.083781059704846769
leaf_weight=7.0226512849330884 5.1672191917896297 7.5359291732311249 5.171923652291297 8.242370665073393
leaf_count=20 22 21 23 34
internal_value=0 0.103258 -0.0829073 -0.0833841
internal_weight=0 14.5586 18.5815 13.4096
internal_count=120 41 79 56
is_linear=0
shrinkage=0.1


Tree=16
num_leaves=4
num_cat=0
split_feature=2 3 3
split_gain=8.72451 14.7918 0.143041
threshold=1.8 1.6500000000000001 1.3500000000000003
decision_type=2 2 2
left_child=-1 2 -2
right_child=1 -3 -4
leaf_value=-0.083635603320402194 0.097907768342745227 -0.066922770273564247 0.07894423003187355
leaf_weight=9.0473038107156736 8.8437117636203819 9.7141693085432035 7.2289483249187461
leaf_count=38 25 37 20
internal_value=0 0.0304982 0.0893786
internal_weight=0 25.7868 16.0727
internal_count=120 82 45
is_linear=0
shrinkage=0.1


Tree=17
num_leaves=5
num_cat=0
split_feature=2 2 0 2
split_gain=23.4668 0.792586 0.112822 0.00140845
threshold=4.7500000000000009 5.3500000000000005 5.0500000000000007 3.6000000000000005
decision_type=2 2 2 2
left_child=2 -2 -1 -4
right_child=1 -3 3 -5
leaf_value=-0.066256845292791508 0.066222620001661195 0.1113629087574361 -0.081636534566180197 -0.083875042384568832
leaf_weight=5.9986662715673473 7.3795569837093344 8.2251154482364637 4.4718351662158948 7.5669383108615875
leaf_count=26 20 23 20 31
internal_value=0 0.0900158 -0.0774608 -0.0830435
internal_weight=0 15.6047 18.0374 12.0388
internal_count=120 43 77 51
is_linear=0
shrinkage=0.1


Tree=18
num_leaves=5
num_cat=0
split_feature=2 2 2 3
split_gain=24.0932 0.0147699 0.00125863 0.000492588
threshold=3.1500000000000004 1.4500000000000002 5.3500000000000005 1.3500000000000003
decision_type=2 2 2 2
left_child=1 -1 3 -2
right_child=2 -3 -4 -5
leaf_value=0.099791481003777271 -0.080658285584934375 0.093265786997220615 -0.079535458587735544 -0.081955734206750674
leaf_weight=6.6524872183799761 4.7311967015266436 7.2462824881076813 4.6757747530937186 7.670024961233139
leaf_count=20 22 21 23 34
internal_value=0 0.0963892 -0.0809336 -0.0814607
internal_weight=0 13.8988 17.077 12.4012
internal_count=120 41 79 56
is_linear=0
shrinkage=0.1


Tree=19
num_leaves=4
num_cat=0
split_feature=3 2 3
split_gain=7.47397 12.3659 0.145887
threshold=0.45000000000000007 4.9500000000000011 1.3500000000000003
decision_type=2 2 2
left_child=-1 2 -2
right_child=1 -3 -4
leaf_value=-0.081376493514467088 0.09088702381143178 -0.065113082016727622 0.071558719640173893
leaf_weight=8.2541020065546018 8.4941098690032977 8.9756027311086637 7.2280776202678672
leaf_count=38 25 36 21
internal_value=0 0.0285373 0.0820011
internal_weight=0 24.6978 15.7222
internal_count=120 82 46
is_linear=0
shrinkage=0.1


Tree=20
num_leaves=5
num_cat=0
split_feature=2 2 1 3
split_gain=19.7161 0.775204 0.119859 0.00077154
threshold=4.7500000000000009 5.3500000000000005 2.8500000000000001 0.45000000000000007
decision_type=2 2 2 2
left_child=2 -2 -1 -4
right_child=1 -3 3 -5
leaf_value=-0.061611791457328417 0.059245068291907232 0.10449470612232584 -0.079828220482438317 -0.081513920376437454
leaf_weight=4.7398301661014619 7.3023818731307966 7.8624919950962067 7.6338556110858899 4.2139900922775269
leaf_count=21 20 23 37 19
internal_value=0 0.0827055 -0.0750512 -0.0804278
internal_weight=0 15.1649 16.5877 11.8478
internal_count=120 43 77 56
is_linear=0
shrinkage=0.1


Tree=21
num_leaves=5
num_cat=0
split_feature=2 2 2 3
split_gain=20.5906 0.0156315 0.00119417 0.000567181
threshold=3.1500000000000004 1.4500000000000002 5.3500000000000005 1.3500000000000003
decision_type=2 2 2 2
left_child=1 -1 3 -2
right_child=2 -3 -4 -5
leaf_value=0.094337578341062864 -0.078833935164525901 0.08742355276637058 -0.077770918755984575 -0.080288203032809591
leaf_weight=6.2181736230850237 4.3068800717592222 6.896636575460434 4.2210287749767295 7.1077439337968826
leaf_count=20 22 21 23 34
internal_value=0 0.0907017 -0.0792081 -0.0797395
internal_weight=0 13.1148 15.6357 11.4146
internal_count=120 41 79 56
is_linear=0
shrinkage=0.1


Tree=22
num_leaves=4
num_cat=0
split_feature=2 3 3
split_gain=6.53469 10.7546 0.105401
threshold=1.8 1.6500000000000001 1.3500000000000003
decision_type=2 2 2
left_child=-1 2 -2
right_child=1 -3 -4
leaf_value=-0.079791229733542524 0.086314307625334374 -0.061769241100313732 0.06944895308344394
leaf_weight=7.5383948236703899 8.0601737499237078 8.6147842556238157 6.8587882816791526
leaf_count=38 25 37 20
internal_value=0 0.0271914 0.0785607
internal_weight=0 23.5337 14.919
internal_count=120 82 45
is_linear=0
shrinkage=0.1


Tree=23
num_leaves=5
num_cat=0
split_feature=3 2 2 2
split_gain=16.9466 1.1256 0.000943784 3.60767e-07
threshold=1.6500000000000001 4.4500000000000011 3.1500000000000004 1.4500000000000002
decision_type=2 2 2 2
left_child=1 2 3 -1
right_child=-2 -3 -4 -5
leaf_value=-0.077988921589823984 0.089743742921442701 -0.021502133183267436 -0.079723220720203825 -0.0779453193574276
leaf_weight=3.7219484299421364 12.395982712507246 4.7225602418184272 5.1222979873418808 3.8714805692434311
leaf_count=20 37 17 25 21
internal_value=0 -0.0631912 -0.0786743 -0.0779667
internal_weight=0 17.4383 12.7157 7.59343
internal_count=120 83 66 41
is_linear=0
shrinkage=0.1


Tree=24
num_leaves=4
num_cat=0
split_feature=2 2 3
split_gain=17.6646 0.000931987 0.000498128
threshold=3.1500000000000004 5.3500000000000005 1.3500000000000003
decision_type=2 2 2
left_child=-1 2 -2
right_child=1 -3 -4
leaf_value=0.085954652511514198 -0.077284850553697063 -0.076352276674036892 -0.078711791057302916
leaf_weight=12.270213514566423 3.9107252806425077 3.8210597783327094 6.5336048603057861
leaf_count=41 22 23 34
internal_value=0 -0.0776886 -0.0781775
internal_weight=0 14.2654 10.4443
internal_count=120 79 56
is_linear=0
shrinkage=0.1


Tree=25
num_leaves=4
num_cat=0
split_feature=3 2 3
split_gain=5.64348 9.12005 0.661944
threshold=0.45000000000000007 5.0500000000000007 1.4500000000000002
decision_type=2 2 2
left_child=-1 2 -2
right_child=1 -3 -4
leaf_value=-0.078128469508300366 0.084682148148452319 -0.069943348255036716 0.04207669414983873
leaf_weight=6.829266473650935 9.5500730276107806 6.888567015528678 5.8991793245077124
leaf_count=38 31 32 19
internal_value=0 0.0257469 0.0684136
internal_weight=0 22.3378 15.4493
internal_count=120 82 50
is_linear=0
shrinkage=0.1


Tree=26
num_leaves=5
num_cat=0
split_feature=2 2 1 3
split_gain=14.1782 0.779353 0.13522 0.000944731
threshold=4.7500000000000009 5.3500000000000005 2.8500000000000001 0.45000000000000007
decision_type=2 2 2 2
left_child=2 -2 -1 -4
right_child=1 -3 3 -5
leaf_value=-0.055643140976578867 0.047908713185125518 0.095099451262045762 -0.076582858575705431 -0.078612987386914565
leaf_weight=4.0582971349358585 7.0000350773334485 6.9984449446201324 6.247532516717909 3.6206930130720139
leaf_count=21 20 23 37 19
internal_value=0 0.0715014 -0.0710087 -0.0773277
internal_weight=0 13.9985 13.9265 9.86823
internal_count=120 43 77 56
is_linear=0
shrinkage=0.1


Tree=27
num_leaves=5
num_cat=0
split_feature=2 0 2 3
split_gain=15.2334 0.0591536 0.000844914 0.000545703
threshold=3.1500000000000004 5.0500000000000007 5.3500000000000005 1.3500000000000003
decision_type=2 2 2 2
left_child=1 -1 3 -2
right_child=2 -3 -4 -5
leaf_value=0.088751090585118819 -0.075905214738520105 0.074322139730490455 -0.075063474554750154 -0.077470805480399585
leaf_weight=6.0403745472431201 3.5273825824260694 5.3647148609161377 3.4275552183389655 6.0363519936800003
leaf_count=22 22 19 23 34
internal_value=0 0.081964 -0.0764106 -0.0768934
internal_weight=0 11.4051 12.9913 9.56373
internal_count=120 41 79 56
is_linear=0
shrinkage=0.1


Tree=28
num_leaves=4
num_cat=0
split_feature=2 3 3
split_gain=4.97236 7.76603 0.104287
threshold=1.8 1.6500000000000001 1.3500000000000003
decision_type=2 2 2
left_child=-1 2 -2
right_child=1 -3 -4
leaf_value=-0.077039790919118625 0.078435916263130706 -0.056408567555129741 0.060873620439156978
leaf_weight=6.2039085328578976 7.1067778766155261 7.5612612664699546 6.4497498571872711
leaf_count=38 25 37 20
internal_value=0 0.0247908 0.0700804
internal_weight=0 21.1178 13.5565
internal_count=120 82 45
is_linear=0
shrinkage=0.1


Tree=29
num_leaves=5
num_cat=0
split_feature=3 2 2 2
split_gain=12.2616 1.3441 0.000981055 9.12263e-08
threshold=1.6500000000000001 4.5500000000000007 3.1500000000000004 1.4500000000000002
decision_type=2 2 2 2
left_child=1 2 3 -1
right_child=-2 -3 -4 -5
leaf_value=-0.075202290323993087 0.079770587218443725 -0.0064673638817131056 -0.077093878755633796 -0.075226618729063555
leaf_weight=3.0171506702899951 11.154283851385115 3.686806544661521 5.0550700724124908 3.1510351225733757
leaf_count=20 37 13 29 21
internal_value=0 -0.0588527 -0.0760611 -0.0752147
internal_weight=0 14.9101 11.2233 6.16819
internal_count=120 83 70 41
is_linear=0
shrinkage=0.1


Tree=30
num_leaves=5
num_cat=0
split_feature=2 0 2 3
split_gain=13.1636 0.0604072 0.000653588 0.000468413
threshold=3.1500000000000004 5.0500000000000007 5.3500000000000005 1.3500000000000003
decision_type=2 2 2 2
left_child=1 -1 3 -2
right_child=2 -3 -4 -5
leaf_value=0.085680811339464702 -0.074751036320993641 0.070520575666004018 -0.074024283692615406 -0.076273859928516347
leaf_weight=5.5424833446741122 3.1827418804168683 4.9988098591566086 3.0878463685512534 5.5285409688949585
leaf_count=22 22 19 23 34
internal_value=0 0.0784916 -0.0752744 -0.0757175
internal_weight=0 10.5413 11.7991 8.71128
internal_count=120 41 79 56
is_linear=0
shrinkage=0.1


Tree=31
num_leaves=4
num_cat=0
split_feature=3 2 1
split_gain=4.31174 6.92656 0.637005
threshold=0.45000000000000007 5.0500000000000007 2.8500000000000001
decision_type=2 2 2
left_child=-1 2 -2
right_child=1 -3 -4
leaf_value=-0.075760169002076605 0.042568481499041147 -0.06626904668795619 0.085471733199513109
leaf_weight=5.5877786129713085 7.5211823284626025 5.9915822744369498 6.4101684838533401
leaf_count=38 27 32 23
internal_value=0 0.023641 0.0623094
internal_weight=0 19.9229 13.9314
internal_count=120 82 50
is_linear=0
shrinkage=0.1


Tree=32
num_leaves=5
num_cat=0
split_feature=2 3 2 1
split_gain=10.2403 1.04524 0.161472 0.000231775
threshold=4.7500000000000009 1.8500000000000003 4.2500000000000009 3.0500000000000003
decision_type=2 2 2 2
left_child=2 -2 3 -1
right_child=1 -3 -4 -5
leaf_value=-0.075192153661454444 0.031439420555439419 0.089037942464117795 -0.047906992755389732 -0.074142824043878966
leaf_weight=3.8715352267026919 5.8258987665176374 6.8609389960765839 3.0852822214364997 4.6131033077836037
leaf_count=26 18 25 17 34
internal_value=0 0.0625882 -0.0674978 -0.0746216
internal_weight=0 12.6868 11.5699 8.48464
internal_count=120 43 77 60
is_linear=0
shrinkage=0.1


Tree=33
num_leaves=5
num_cat=0
split_feature=2 0 2 3
split_gain=11.4103 0.0637686 0.000486787 0.000303816
threshold=3.1500000000000004 5.0500000000000007 5.3500000000000005 1.3500000000000003
decision_type=2 2 2 2
left_child=1 -1 3 -2
right_child=2 -3 -4 -5
leaf_value=0.08317269323629993 -0.073881169629523 0.066944365097778555 -0.073158119510664671 -0.075165806052313974
leaf_weight=5.0580432415008563 2.9070626497268659 4.644979864358902 2.7863727211952209 5.0201554596424103
leaf_count=22 22 19 23 34
internal_value=0 0.075404 -0.0742951 -0.0746947
internal_weight=0 9.70302 10.7136 7.92722
internal_count=120 41 79 56
is_linear=0
shrinkage=0.1


Tree=34
num_leaves=4
num_cat=0
split_feature=2 2 1
split_gain=3.82219 5.88514 0.642785
threshold=1.8 5.0500000000000007 2.8500000000000001
decision_type=2 2 2
left_child=-1 2 -2
right_child=1 -3 -4
leaf_value=-0.075055942047710267 0.038873777091218309 -0.063716190809410031 0.083079332037431619
leaf_weight=5.0619674474000957 7.2262527644634265 5.5408656597137442 6.037712424993515
leaf_count=38 27 32 23
internal_value=0 0.0228387 0.058996
internal_weight=0 18.8048 13.264
internal_count=120 82 50
is_linear=0
shrinkage=0.1


Tree=35
num_leaves=5
num_cat=0
split_feature=3 2 2 2
split_gain=8.89745 1.23263 0.000679265 1.02723e-06
threshold=1.6500000000000001 4.5500000000000007 3.1500000000000004 1.4500000000000002
decision_type=2 2 2 2
left_child=1 2 3 -1
right_child=-2 -3 -4 -5
leaf_value=-0.073122852582984982 0.071935058565242418 -0.0045479835534493118 -0.074895991372958229 -0.073213929105503034
leaf_weight=2.4139577969908732 9.8638294488191587 3.5470425784587851 4.2186093777418137 2.5429233238101006
leaf_count=20 37 13 29 21
internal_value=0 -0.0546103 -0.0739633 -0.0731696
internal_weight=0 12.7225 9.17549 4.95688
internal_count=120 83 70 41
is_linear=0
shrinkage=0.1


Tree=36
num_leaves=5
num_cat=0
split_feature=2 0 2 3
split_gain=9.90598 0.06803 0.000346224 0.000181448
threshold=3.1500000000000004 5.0500000000000007 5.3500000000000005 1.3500000000000003
decision_type=2 2 2 2
left_child=1 -1 3 -2
right_child=2 -3 -4 -5
leaf_value=0.081058421449944434 -0.073127372366435045 0.063566578584681024 -0.072421314187972111 -0.074167916942520423
leaf_weight=4.59550888836384 2.6552824303507787 4.30764339864254 2.5157967731356621 4.5432008728384972
leaf_count=22 22 19 23 34
internal_value=0 0.0725953 -0.0734312 -0.0737841
internal_weight=0 8.90315 9.71428 7.19848
internal_count=120 41 79 56
is_linear=0
shrinkage=0.1


Tree=37
num_leaves=4
num_cat=0
split_feature=3 2 1
split_gain=3.32332 5.02756 0.617871
threshold=0.45000000000000007 5.0500000000000007 2.8500000000000001
decision_type=2 2 2
left_child=-1 2 -2
right_child=1 -3 -4
leaf_value=-0.074057431483769406 0.035691889523530515 -0.061564424345738791 0.080154205480001073
leaf_weight=4.5420526340603855 6.9294723421335238 5.1412498056888571 5.6934057325124741
leaf_count=38 27 32 23
internal_value=0 0.0217944 0.0557461
internal_weight=0 17.7641 12.6229
internal_count=120 82 50
is_linear=0
shrinkage=0.1


Tree=38
num_leaves=4
num_cat=0
split_feature=3 2 2
split_gain=7.64774 1.44514 0.000774681
threshold=1.6500000000000001 4.6500000000000012 3.1500000000000004
decision_type=2 2 2
left_child=1 2 -1
right_child=-2 -3 -4
leaf_value=-0.072353212034379458 0.068740937438338853 0.0071605443416018115 -0.074234384805099973
leaf_weight=4.4325165897607821 9.2599604576826078 2.9976622164249411 4.3251917511224747
leaf_count=41 37 10 32
internal_value=0 -0.0527691 -0.0732823
internal_weight=0 11.7554 8.75771
internal_count=120 83 73
is_linear=0
shrinkage=0.1


Tree=39
num_leaves=5
num_cat=0
split_feature=2 1 1 0
split_gain=8.63563 0.30454 0.0152692 2.68653e-05
threshold=1.8 3.0500000000000003 2.6500000000000008 6.1500000000000012
decision_type=2 2 2 2
left_child=-1 2 -2 -4
right_child=1 -3 3 -5
leaf_value=0.079054157926614022 -0.08240599226460199 -0.036353413518563353 -0.072943157381194099 -0.072460494044152945
leaf_weight=7.1943276822567013 2.5027076154947263 2.6408674493432045 2.3387829884886742 2.2748860567808151
leaf_count=38 19 22 20 21
internal_value=0 -0.0653545 -0.0761168 -0.0727052
internal_weight=0 9.75724 7.11638 4.61367
internal_count=120 82 60 41
is_linear=0
shrinkage=0.1


Tree=40
num_leaves=4
num_cat=0
split_feature=2 3 2
split_gain=2.965 4.33052 0.224491
threshold=1.8 1.6500000000000001 4.4500000000000011
decision_type=2 2 2
left_child=-1 2 -2
right_child=1 -3 -4
leaf_value=-0.073613625214531839 0.071547446482576701 -0.047558425824939785 0.042477640087818298
leaf_weight=4.1101469099521664 6.0876415669918078 5.9193105697631827 4.7133237719535828
leaf_count=38 28 37 17
internal_value=0 0.021187 0.058862
internal_weight=0 16.7203 10.801
internal_count=120 82 45
is_linear=0
shrinkage=0.1


Tree=41
num_leaves=4
num_cat=0
split_feature=3 2 2
split_gain=6.59316 1.69711 0.000817175
threshold=1.6500000000000001 4.8500000000000005 3.1500000000000004
decision_type=2 2 2
left_child=1 2 -1
right_child=-2 -3 -4
leaf_value=-0.071647601047905504 0.065806671859424459 0.021365561461318267 -0.073627909393580451
leaf_weight=3.9583554267883319 8.6864267736673337 2.4898840785026541 4.4000626429915428
leaf_count=41 37 7 35
internal_value=0 -0.0511026 -0.0726901
internal_weight=0 10.8483 8.35842
internal_count=120 83 76
is_linear=0
shrinkage=0.1


Tree=42
num_leaves=5
num_cat=0
split_feature=2 0 2 3
split_gain=7.59367 0.0718166 0.00017177 0.000117043
threshold=3.1500000000000004 5.0500000000000007 5.3500000000000005 1.4500000000000002
decision_type=2 2 2 2
left_child=1 -1 3 -2
right_child=2 -3 -4 -5
leaf_value=0.078052581458468884 -0.071848379889618827 0.058394157014064502 -0.071259098923634953 -0.072738534387825279
leaf_weight=3.7695378065109253 2.8012147918343544 3.665320098400116 2.0671942010521889 3.124933198094368
leaf_count=22 28 19 23 28
internal_value=0 0.0683611 -0.072044 -0.0723178
internal_weight=0 7.43486 7.99334 5.92615
internal_count=120 41 79 56
is_linear=0
shrinkage=0.1


Tree=43
num_leaves=4
num_cat=0
split_feature=3 2 1
split_gain=2.60077 3.90938 0.680219
threshold=0.45000000000000007 5.0500000000000007 2.8500000000000001
decision_type=2 2 2
left_child=-1 2 -2
right_child=1 -3 -4
leaf_value=-0.073094828477895266 0.029843926326346377 -0.058415279263983114 0.079461816765630813
leaf_weight=3.6844538971781757 6.2047291696071607 4.5023441016674033 4.980936124920845
leaf_count=38 27 32 23
internal_value=0 0.0202678 0.0519386
internal_weight=0 15.688 11.1857
internal_count=120 82 50
is_linear=0
shrinkage=0.1


Tree=44
num_leaves=4
num_cat=0
split_feature=2 3 2
split_gain=5.6904 1.00123 0.00037329
threshold=4.9500000000000011 1.4500000000000002 3.1500000000000004
decision_type=2 2 2
left_child=1 2 -1
right_child=-2 -3 -4
leaf_value=-0.071018642025254194 0.064245936059461425 -0.0058402964038771193 -0.072527540240075197
leaf_weight=3.5244999304413813 7.974807307124137 3.5492754355072975 3.0656721144914627
leaf_count=41 36 15 28
internal_value=0 -0.0486594 -0.0717206
internal_weight=0 10.1394 6.59017
internal_count=120 84 69
is_linear=0
shrinkage=0.1


Tree=45
num_leaves=5
num_cat=0
split_feature=3 1 0 2
split_gain=6.69871 0.101576 0.0196376 0.000102648
threshold=1.0500000000000003 3.4500000000000006 5.7500000000000009 5.3500000000000005
decision_type=2 2 2 2
left_child=1 -1 -2 -4
right_child=2 -3 3 -5
leaf_value=0.053506809281415851 -0.083376733996290434 0.077801527825690067 -0.07166519359465845 -0.070733858462095692
leaf_weight=4.0962357446551323 1.8379706442356107 2.9678033888339996 3.2682071104645729 1.8551785573363302
leaf_count=29 16 18 34 23
internal_value=0 0.0637137 -0.0745091 -0.071328
internal_weight=0 7.06404 6.96136 5.12339
internal_count=120 47 73 57
is_linear=0
shrinkage=0.1


Tree=46
num_leaves=4
num_cat=0
split_feature=2 2 1
split_gain=2.29073 3.25647 0.667878
threshold=1.8 5.0500000000000007 2.8500000000000001
decision_type=2 2 2
left_child=-1 2 -2
right_child=1 -3 -4
leaf_value=-0.072522052962399108 0.026646976827695585 -0.055483947311940944 0.077081370012448525
leaf_weight=3.3079504147172001 5.9762999564409238 4.1635881513357154 4.6833014786243439
leaf_count=38 27 32 23
internal_value=0 0.0195122 0.0488054
internal_weight=0 14.8232 10.6596
internal_count=120 82 50
is_linear=0
shrinkage=0.1


Tree=47
num_leaves=4
num_cat=0
split_feature=3 2 2
split_gain=4.91043 1.41395 0.000537658
threshold=1.6500000000000001 4.8500000000000005 3.1500000000000004
decision_type=2 2 2
left_child=1 2 -1
right_child=-2 -3 -4
leaf_value=-0.070489407389502337 0.060347299291798689 0.01729684655324536 -0.072274340017036989
leaf_weight=3.1409445628523844 7.6564956754446021 2.4409000873565674 3.6470878720283508
leaf_count=41 37 7 35
internal_value=0 -0.0479768 -0.0714484
internal_weight=0 9.22893 6.78803
internal_count=120 83 76
is_linear=0
shrinkage=0.1


end of trees

feature_importances:
petal_length=91
petal_width=50
sepal_width=15
sepal_length=13

parameters:
[boosting: gbdt]
[objective: multiclass]
[metric: multi_logloss]
[tree_learner: serial]
[device_type: cpu]
[linear_tree: 0]
[data: ]
[valid: ]
[num_iterations: 16]
[learning_rate: 0.1]
[num_leaves: 31]
[num_threads: 0]
[deterministic: 0]
[force_col_wise: 0]
[force_row_wise: 0]
[histogram_pool_size: -1]
[max_depth: -1]
[min_data_in_leaf: 20]
[min_sum_hessian_in_leaf: 0.001]
[bagging_fraction: 1]
[pos_bagging_fraction: 1]
[neg_bagging_fraction: 1]
[bagging_freq: 0]
[bagging_seed: 400]
[feature_fraction: 1]
[feature_fraction_bynode: 1]
[feature_fraction_seed: 30056]
[extra_trees: 0]
[extra_seed: 12879]
[early_stopping_round: 0]
[first_metric_only: 0]
[max_delta_step: 0]
[lambda_l1: 0]
[lambda_l2: 0]
[linear_lambda: 0]
[min_gain_to_split: 0]
[drop_rate: 0.1]
[max_drop: 50]
[skip_drop: 0.5]
[xgboost_dart_mode: 0]
[uniform_drop: 0]
[drop_seed: 17869]
[top_rate: 0.2]
[other_rate: 0.1]
[min_data_per_group: 100]
[max_cat_threshold: 32]
[cat_l2: 10]
[cat_smooth: 10]
[max_cat_to_onehot: 4]
[top_k: 20]
[monotone_constraints: ]
[monotone_constraints_method: basic]
[monotone_penalty: 0]
[feature_contri: ]
[forcedsplits_filename: ]
[refit_decay_rate: 0.9]
[cegb_tradeoff: 1]
[cegb_penalty_split: 0]
[cegb_penalty_feature_lazy: ]
[cegb_penalty_feature_coupled: ]
[path_smooth: 0]
[interaction_constraints: ]
[verbosity: 0]
[saved_feature_importance_type: 0]
[max_bin: 255]
[max_bin_by_feature: ]
[min_data_in_bin: 3]
[bin_construct_sample_cnt: 200000]
[data_random_seed: 175]
[is_enable_sparse: 1]
[enable_bundle: 1]
[use_missing: 1]
[zero_as_missing: 0]
[feature_pre_filter: 1]
[pre_partition: 0]
[two_round: 0]
[header: 0]
[label_column: ]
[weight_column: ]
[group_column: ]
[ignore_column: ]
[categorical_feature: ]
[forcedbins_filename: ]
[objective_seed: 16083]
[num_class: 3]
[is_unbalance: 0]
[scale_pos_weight: 1]
[sigmoid: 1]
[boost_from_average: 1]
[reg_sqrt: 0]
[alpha: 0.9]
[fair_c: 1]
[poisson_max_delta_step: 0.7]
[tweedie_variance_power: 1.5]
[lambdarank_truncation_level: 30]
[lambdarank_norm: 1]
[label_gain: ]
[eval_at: ]
[multi_error_top_k: 1]
[auc_mu_weights: ]
[num_machines: 1]
[local_listen_port: 12400]
[time_out: 120]
[machine_list_filename: ]
[machines: ]
[gpu_platform_id: -1]
[gpu_device_id: -1]
[gpu_use_dp: 0]
[num_gpu: 1]

end of parameters

pandas_categorical:[]
